digraph Tree {
node [shape=box] ;
0 [label="X[4] <= 0.545\ngini = 0.735\nsamples = 14\nvalue = [3, 5, 3, 3]"] ;
1 [label="X[2] <= 0.5\ngini = 0.5\nsamples = 6\nvalue = [0, 0, 3, 3]"] ;
0 -> 1 [labeldistance=2.5, labelangle=45, headlabel="True"] ;
2 [label="X[7] <= 0.5\ngini = 0.375\nsamples = 4\nvalue = [0, 0, 3, 1]"] ;
1 -> 2 ;
3 [label="gini = 0.0\nsamples = 1\nvalue = [0, 0, 0, 1]"] ;
2 -> 3 ;
4 [label="gini = 0.0\nsamples = 3\nvalue = [0, 0, 3, 0]"] ;
2 -> 4 ;
5 [label="gini = 0.0\nsamples = 2\nvalue = [0, 0, 0, 2]"] ;
1 -> 5 ;
6 [label="X[5] <= 47.5\ngini = 0.469\nsamples = 8\nvalue = [3, 5, 0, 0]"] ;
0 -> 6 [labeldistance=2.5, labelangle=-45, headlabel="False"] ;
7 [label="X[0] <= 0.5\ngini = 0.375\nsamples = 4\nvalue = [3, 1, 0, 0]"] ;
6 -> 7 ;
8 [label="gini = 0.0\nsamples = 1\nvalue = [0, 1, 0, 0]"] ;
7 -> 8 ;
9 [label="gini = 0.0\nsamples = 3\nvalue = [3, 0, 0, 0]"] ;
7 -> 9 ;
10 [label="gini = 0.0\nsamples = 4\nvalue = [0, 4, 0, 0]"] ;
6 -> 10 ;
}